FANN_FLO_2.1
num_layers=4
learning_rate=0.700000
connection_rate=1.000000
network_type=0
learning_momentum=0.000000
training_algorithm=2
train_error_function=1
train_stop_function=0
cascade_output_change_fraction=0.010000
quickprop_decay=-0.000100
quickprop_mu=1.750000
rprop_increase_factor=1.200000
rprop_decrease_factor=0.500000
rprop_delta_min=0.000000
rprop_delta_max=50.000000
rprop_delta_zero=0.100000
cascade_output_stagnation_epochs=12
cascade_candidate_change_fraction=0.010000
cascade_candidate_stagnation_epochs=12
cascade_max_out_epochs=150
cascade_min_out_epochs=50
cascade_max_cand_epochs=150
cascade_min_cand_epochs=50
cascade_num_candidate_groups=2
bit_fail_limit=9.99999977648258209229e-03
cascade_candidate_limit=1.00000000000000000000e+03
cascade_weight_multiplier=4.00000005960464477539e-01
cascade_activation_functions_count=10
cascade_activation_functions=3 5 7 8 10 11 14 15 16 17 
cascade_activation_steepnesses_count=4
cascade_activation_steepnesses=2.50000000000000000000e-01 5.00000000000000000000e-01 7.50000000000000000000e-01 1.00000000000000000000e+00 
layer_sizes=5 21 21 4 
scale_included=0
neurons (num_inputs, activation_function, activation_steepness)=(0, 0, 0.00000000000000000000e+00) (0, 0, 0.00000000000000000000e+00) (0, 0, 0.00000000000000000000e+00) (0, 0, 0.00000000000000000000e+00) (0, 0, 0.00000000000000000000e+00) (5, 5, 5.00000000000000000000e-01) (5, 5, 5.00000000000000000000e-01) (5, 5, 5.00000000000000000000e-01) (5, 5, 5.00000000000000000000e-01) (5, 5, 5.00000000000000000000e-01) (5, 5, 5.00000000000000000000e-01) (5, 5, 5.00000000000000000000e-01) (5, 5, 5.00000000000000000000e-01) (5, 5, 5.00000000000000000000e-01) (5, 5, 5.00000000000000000000e-01) (5, 5, 5.00000000000000000000e-01) (5, 5, 5.00000000000000000000e-01) (5, 5, 5.00000000000000000000e-01) (5, 5, 5.00000000000000000000e-01) (5, 5, 5.00000000000000000000e-01) (5, 5, 5.00000000000000000000e-01) (5, 5, 5.00000000000000000000e-01) (5, 5, 5.00000000000000000000e-01) (5, 5, 5.00000000000000000000e-01) (5, 5, 5.00000000000000000000e-01) (0, 5, 0.00000000000000000000e+00) (21, 5, 5.00000000000000000000e-01) (21, 5, 5.00000000000000000000e-01) (21, 5, 5.00000000000000000000e-01) (21, 5, 5.00000000000000000000e-01) (21, 5, 5.00000000000000000000e-01) (21, 5, 5.00000000000000000000e-01) (21, 5, 5.00000000000000000000e-01) (21, 5, 5.00000000000000000000e-01) (21, 5, 5.00000000000000000000e-01) (21, 5, 5.00000000000000000000e-01) (21, 5, 5.00000000000000000000e-01) (21, 5, 5.00000000000000000000e-01) (21, 5, 5.00000000000000000000e-01) (21, 5, 5.00000000000000000000e-01) (21, 5, 5.00000000000000000000e-01) (21, 5, 5.00000000000000000000e-01) (21, 5, 5.00000000000000000000e-01) (21, 5, 5.00000000000000000000e-01) (21, 5, 5.00000000000000000000e-01) (21, 5, 5.00000000000000000000e-01) (0, 5, 0.00000000000000000000e+00) (21, 0, 5.00000000000000000000e-01) (21, 0, 5.00000000000000000000e-01) (21, 0, 5.00000000000000000000e-01) (0, 0, 0.00000000000000000000e+00) 
connections (connected_to_neuron, weight)=(0, 9.72564637660980224609e-01) (1, -1.31706327199935913086e-01) (2, 5.61874091625213623047e-01) (3, -1.22258253395557403564e-01) (4, 1.58156275749206542969e-01) (0, 1.52328693866729736328e+00) (1, -9.33640971779823303223e-02) (2, -8.73176753520965576172e-01) (3, 1.21906297281384468079e-02) (4, -5.46603918075561523438e-01) (0, 5.58129608631134033203e-01) (1, 5.47366499900817871094e-01) (2, 5.31979084014892578125e-01) (3, 5.72800278663635253906e-01) (4, 1.46642220020294189453e+00) (0, 4.67794984579086303711e-01) (1, 1.19297012686729431152e-01) (2, 1.86918079853057861328e-01) (3, 3.06914653629064559937e-02) (4, 1.87463656067848205566e-01) (0, -2.56937891244888305664e-01) (1, -2.05278173089027404785e-01) (2, -1.68030127882957458496e-01) (3, -1.26602113246917724609e-01) (4, 1.15636073052883148193e-01) (0, 2.42920899391174316406e+00) (1, 3.21369320154190063477e-01) (2, -1.81065845489501953125e+00) (3, 1.05181252956390380859e+00) (4, -7.99281895160675048828e-01) (0, 3.70219916105270385742e-01) (1, 4.82338160276412963867e-01) (2, 6.90747857093811035156e-01) (3, 5.99590659141540527344e-01) (4, 1.42486274242401123047e+00) (0, 5.62692821025848388672e-01) (1, 5.19220888614654541016e-01) (2, 5.14412820339202880859e-01) (3, 5.09725928306579589844e-01) (4, 3.45103651285171508789e-01) (0, -6.21231794357299804688e-02) (1, -1.33866332471370697021e-02) (2, -8.12190994620323181152e-02) (3, -1.34206693619489669800e-02) (4, 1.07723379135131835938e+00) (0, 5.62454283237457275391e-01) (1, 5.13049423694610595703e-01) (2, 5.28012156486511230469e-01) (3, 5.06662368774414062500e-01) (4, 3.33007752895355224609e-01) (0, 2.57486611604690551758e-01) (1, 1.12580016255378723145e-01) (2, -2.38278824836015701294e-02) (3, 1.05157546699047088623e-01) (4, 2.82139509916305541992e-01) (0, -8.03306400775909423828e-02) (1, -2.16364204883575439453e-01) (2, -2.83281922340393066406e-01) (3, -1.83956250548362731934e-01) (4, -7.86148071289062500000e-01) (0, 5.96107423305511474609e-01) (1, 5.04098951816558837891e-01) (2, 6.17537677288055419922e-01) (3, 4.34001922607421875000e-01) (4, 3.51700931787490844727e-01) (0, 4.92009252309799194336e-01) (1, 4.70447659492492675781e-01) (2, 4.33970272541046142578e-01) (3, 5.53158223628997802734e-01) (4, 1.39968240261077880859e+00) (0, -1.26561045646667480469e-01) (1, 5.77239215373992919922e-01) (2, -1.17852315306663513184e-01) (3, 4.44843947887420654297e-01) (4, 1.51978656649589538574e-01) (0, 6.45406663417816162109e-01) (1, 4.45350199937820434570e-01) (2, 6.40999317169189453125e-01) (3, 1.97126448154449462891e-01) (4, 1.88281014561653137207e-01) (0, -1.32530415430665016174e-02) (1, -2.21994817256927490234e-01) (2, -8.00976097583770751953e-01) (3, -2.64356493949890136719e-01) (4, -8.20250988006591796875e-01) (0, -3.40373933315277099609e-01) (1, 3.99149268865585327148e-01) (2, -1.91644504666328430176e-01) (3, 3.82338881492614746094e-01) (4, 1.61022752523422241211e-01) (0, 5.16335964202880859375e-01) (1, 6.12523496150970458984e-01) (2, 4.86907780170440673828e-01) (3, 5.37662625312805175781e-01) (4, 2.40705281496047973633e-01) (0, -2.63237237930297851562e-01) (1, -1.40345051884651184082e-01) (2, -1.37109309434890747070e-01) (3, -1.12166032195091247559e-01) (4, 1.41949489712715148926e-01) (5, -2.32955724000930786133e-01) (6, -5.22873640060424804688e-01) (7, -6.62223920226097106934e-02) (8, -1.41034519672393798828e+00) (9, 1.09696388244628906250e+00) (10, -5.55333971977233886719e-01) (11, -6.71918317675590515137e-02) (12, -1.77151620388031005859e-01) (13, 7.18039600178599357605e-03) (14, -2.04102188348770141602e-01) (15, -1.57265946269035339355e-01) (16, 6.36253774166107177734e-01) (17, -1.69887825846672058105e-01) (18, -9.09970700740814208984e-02) (19, 8.87082993984222412109e-01) (20, -2.35362812876701354980e-01) (21, 6.51208400726318359375e-01) (22, 4.96178150177001953125e-01) (23, -2.02192097902297973633e-01) (24, 1.51626121997833251953e+00) (25, 1.20562088489532470703e+00) (5, 4.61412340402603149414e-01) (6, 1.80580329895019531250e+00) (7, 2.79669255018234252930e-01) (8, 1.79920583963394165039e-01) (9, -1.58072960376739501953e+00) (10, 1.67464840412139892578e+00) (11, 3.02759557962417602539e-01) (12, -1.25874727964401245117e-01) (13, -2.87437289953231811523e-01) (14, 5.16672551631927490234e-01) (15, 1.07916653156280517578e-01) (16, 3.97548586130142211914e-01) (17, 4.60218906402587890625e-01) (18, 3.36041599512100219727e-01) (19, -4.43028122186660766602e-01) (20, 4.98886525630950927734e-01) (21, 4.60729420185089111328e-01) (22, -1.92998796701431274414e-01) (23, 5.60621380805969238281e-01) (24, -3.10185027122497558594e+00) (25, -5.54259717464447021484e-01) (5, 2.25198125839233398438e+00) (6, 2.85809135437011718750e+00) (7, 1.52445101737976074219e+00) (8, 8.23405265808105468750e+00) (9, 1.05196096003055572510e-01) (10, -1.24620246887207031250e+00) (11, 8.88142168521881103516e-01) (12, -1.69959247112274169922e-01) (13, 3.63996237516403198242e-01) (14, -4.17627960443496704102e-01) (15, 5.25170145556330680847e-03) (16, 2.11024373769760131836e-01) (17, -7.95087888836860656738e-02) (18, 6.58534705638885498047e-01) (19, -1.18038833141326904297e+00) (20, 1.76008656620979309082e-01) (21, 1.38061940670013427734e+00) (22, -1.94960907101631164551e-02) (23, 2.10721686482429504395e-01) (24, 5.16548156738281250000e-01) (25, 7.12398231029510498047e-01) (5, -1.43329933285713195801e-01) (6, -6.01208686828613281250e-01) (7, -7.76115432381629943848e-02) (8, 2.82245934009552001953e-01) (9, 6.74929499626159667969e-01) (10, 6.79528787732124328613e-02) (11, -1.78156554698944091797e-01) (12, -1.33266031742095947266e-01) (13, 3.48374247550964355469e-01) (14, -1.76214560866355895996e-01) (15, 5.93720376491546630859e-03) (16, 5.67260622978210449219e-01) (17, -2.49254271388053894043e-01) (18, -1.12454235553741455078e-01) (19, 1.04828989505767822266e+00) (20, -1.62824958562850952148e-01) (21, 6.69180452823638916016e-01) (22, 5.54069817066192626953e-01) (23, -1.57824799418449401855e-01) (24, 6.80567860603332519531e-01) (25, 1.53620034456253051758e-01) (5, 1.30002900958061218262e-01) (6, -1.78770512342453002930e-01) (7, 4.62640076875686645508e-01) (8, 4.23559010028839111328e-01) (9, -1.56865075230598449707e-01) (10, -3.29367458820343017578e-01) (11, 2.21178755164146423340e-01) (12, 6.16428136825561523438e-01) (13, 8.12143146991729736328e-01) (14, 4.28438514471054077148e-01) (15, 3.86180758476257324219e-01) (16, 1.75000286102294921875e+00) (17, 6.40901088714599609375e-01) (18, 2.74414449930191040039e-01) (19, -3.58370035886764526367e-01) (20, 6.28458619117736816406e-01) (21, 1.28950715065002441406e+00) (22, 2.14367229491472244263e-02) (23, 5.46524465084075927734e-01) (24, -1.84835121035575866699e-01) (25, 5.42946994304656982422e-01) (5, 2.96285878866910934448e-02) (6, 4.93392109870910644531e-01) (7, -1.35316014289855957031e-01) (8, -1.83485932648181915283e-02) (9, 6.27636492252349853516e-01) (10, 4.94203746318817138672e-01) (11, -1.60370454192161560059e-01) (12, -2.49395281076431274414e-01) (13, -5.82903847098350524902e-02) (14, -1.67172744870185852051e-01) (15, 2.15309724211692810059e-01) (16, 6.64679467678070068359e-01) (17, -1.80314406752586364746e-01) (18, -1.81653410196304321289e-01) (19, 8.22970986366271972656e-01) (20, -1.52913421392440795898e-01) (21, 9.02504861354827880859e-01) (22, 9.90172624588012695312e-02) (23, -1.43125340342521667480e-01) (24, 4.98201817274093627930e-01) (25, -5.01438379287719726562e-01) (5, 1.39802515506744384766e-01) (6, 5.83377242088317871094e-01) (7, -2.68637567758560180664e-01) (8, -1.27635654062032699585e-02) (9, 6.24864399433135986328e-01) (10, 5.67310273647308349609e-01) (11, -1.93834319710731506348e-01) (12, -1.92934691905975341797e-01) (13, 5.49655295908451080322e-02) (14, -1.83397933840751647949e-01) (15, 2.30534628033638000488e-01) (16, 5.21325051784515380859e-01) (17, -3.04995208978652954102e-01) (18, -1.95667728781700134277e-01) (19, 3.73754352331161499023e-01) (20, -2.19324275851249694824e-01) (21, 7.70069837570190429688e-01) (22, -5.53263984620571136475e-02) (23, -1.25027477741241455078e-01) (24, 5.65407872200012207031e-01) (25, -5.05536854267120361328e-01) (5, 8.52994799613952636719e-01) (6, -5.27268075942993164062e+00) (7, 8.69329094886779785156e-01) (8, 5.57032763957977294922e-01) (9, -3.16338151693344116211e-01) (10, -5.43680116534233093262e-02) (11, 3.31505370140075683594e+00) (12, 8.64982545375823974609e-01) (13, 3.20583403110504150391e-01) (14, 9.04360890388488769531e-01) (15, -7.62136173248291015625e+00) (16, 2.86639094352722167969e-01) (17, 7.50731348991394042969e-01) (18, 6.27080380916595458984e-01) (19, 1.46606302261352539062e+00) (20, 2.94659942388534545898e-01) (21, 1.08541667461395263672e+00) (22, -1.26706361770629882812e+00) (23, 6.74058377742767333984e-01) (24, -2.29681149125099182129e-01) (25, 9.10603046417236328125e-01) (5, -4.69892203807830810547e-01) (6, -3.02368581295013427734e-01) (7, 1.83630615472793579102e-01) (8, -2.59274374693632125854e-02) (9, -1.17257468402385711670e-01) (10, -2.93780773878097534180e-01) (11, 1.81554198265075683594e-01) (12, 2.19878032803535461426e-01) (13, 5.90738713741302490234e-01) (14, 2.19148799777030944824e-01) (15, 1.81483387947082519531e-01) (16, 2.92479265481233596802e-02) (17, -3.52259904146194458008e-01) (18, 2.81678497791290283203e-01) (19, 6.10309243202209472656e-01) (20, -1.68533876538276672363e-01) (21, -5.62112390995025634766e-01) (22, 1.00425195693969726562e+00) (23, 5.29828071594238281250e-01) (24, -1.16830416023731231689e-01) (25, 1.30301642417907714844e+00) (5, -2.45894521474838256836e-01) (6, -1.60805559158325195312e+00) (7, 7.54220411181449890137e-02) (8, -4.05607700347900390625e-01) (9, -5.42720817029476165771e-02) (10, -6.20145261287689208984e-01) (11, 4.17867690324783325195e-01) (12, 5.23912727832794189453e-01) (13, 1.22498762607574462891e+00) (14, -5.30403107404708862305e-03) (15, 1.27639770507812500000e-01) (16, -5.03326654434204101562e-01) (17, 7.92639926075935363770e-02) (18, 2.59861230850219726562e-01) (19, 7.90479660034179687500e-01) (20, 6.03493973612785339355e-02) (21, -2.08053532987833023071e-02) (22, 2.01500684022903442383e-01) (23, 4.45390760898590087891e-01) (24, 1.69334709644317626953e-01) (25, -4.24329847097396850586e-01) (5, -7.49306440353393554688e-01) (6, 2.60572552680969238281e-01) (7, -1.48910388350486755371e-01) (8, -4.02573585510253906250e-01) (9, 5.27946770191192626953e-01) (10, 2.15142205357551574707e-01) (11, -3.65432351827621459961e-02) (12, -9.99632775783538818359e-02) (13, 5.35459294915199279785e-02) (14, -1.61159828305244445801e-01) (15, -7.45448097586631774902e-02) (16, 4.61666464805603027344e-01) (17, -1.34961649775505065918e-01) (18, 4.06373366713523864746e-02) (19, 6.49555385112762451172e-01) (20, -6.48664012551307678223e-02) (21, 5.84688067436218261719e-01) (22, 4.82091665267944335938e-01) (23, -4.56317625939846038818e-02) (24, 5.98754167556762695312e-01) (25, 2.64837592840194702148e-01) (5, 1.66280776262283325195e-01) (6, 5.34838318824768066406e-01) (7, 3.69196325540542602539e-01) (8, 2.37021911889314651489e-02) (9, -9.55426469445228576660e-02) (10, 1.12060196697711944580e-01) (11, 5.41041135787963867188e-01) (12, 5.74829995632171630859e-01) (13, 5.78573048114776611328e-01) (14, 5.29393911361694335938e-01) (15, 3.14691931009292602539e-01) (16, 1.79314899444580078125e+00) (17, 4.90827530622482299805e-01) (18, 4.88887816667556762695e-01) (19, -1.18686266243457794189e-01) (20, 5.44716119766235351562e-01) (21, 1.61920046806335449219e+00) (22, -1.35161265730857849121e-01) (23, 4.04994636774063110352e-01) (24, -1.13771662116050720215e-01) (25, 8.26289281249046325684e-02) (5, 1.91543757915496826172e-01) (6, 6.53634905815124511719e-01) (7, -2.03345447778701782227e-01) (8, 4.68376390635967254639e-02) (9, 6.25620722770690917969e-01) (10, 4.69282180070877075195e-01) (11, -2.65948951244354248047e-01) (12, -2.13525637984275817871e-01) (13, -5.23657836019992828369e-02) (14, -2.28582337498664855957e-01) (15, 1.82055383920669555664e-01) (16, 6.20282948017120361328e-01) (17, -1.81627735495567321777e-01) (18, -2.36480951309204101562e-01) (19, 3.07268798351287841797e-01) (20, -9.62915718555450439453e-02) (21, 8.93094182014465332031e-01) (22, 5.61465144157409667969e-01) (23, -1.66732907295227050781e-01) (24, 6.17178320884704589844e-01) (25, -4.17005598545074462891e-01) (5, -3.31726312637329101562e-01) (6, 9.23384428024291992188e-01) (7, -1.21578164398670196533e-02) (8, 4.39080111682415008545e-02) (9, 4.43476349115371704102e-01) (10, 3.11024755239486694336e-01) (11, 8.46482738852500915527e-02) (12, -8.70556607842445373535e-02) (13, 1.34419128298759460449e-01) (14, -1.57118558883666992188e-01) (15, -1.00770004093647003174e-01) (16, 5.19927561283111572266e-01) (17, -1.08106173574924468994e-01) (18, 1.79999936372041702271e-02) (19, 4.65991765260696411133e-01) (20, -8.06688293814659118652e-02) (21, 4.61664140224456787109e-01) (22, 4.98825281858444213867e-01) (23, -5.91936744749546051025e-02) (24, 5.79297006130218505859e-01) (25, 3.73505115509033203125e-01) (5, -3.74550312757492065430e-01) (6, 2.51613140106201171875e-01) (7, -1.14520089700818061829e-02) (8, -1.44426381587982177734e+00) (9, 4.13178466260433197021e-02) (10, -2.89535790681838989258e-01) (11, 6.36068359017372131348e-02) (12, 4.52518582344055175781e-01) (13, 4.07546579837799072266e-01) (14, 3.24029594659805297852e-01) (15, -3.26184123754501342773e-01) (16, 4.23773378133773803711e-01) (17, 2.20998644828796386719e-01) (18, 5.09701184928417205811e-02) (19, 1.14583587646484375000e+00) (20, 1.67469769716262817383e-01) (21, 2.54804819822311401367e-01) (22, 3.62737894058227539062e-01) (23, 3.02687734365463256836e-01) (24, 1.90102338790893554688e-01) (25, 9.40530933439731597900e-03) (5, -7.80940949916839599609e-01) (6, 4.76123690605163574219e-01) (7, -1.65613994002342224121e-01) (8, 1.95417717099189758301e-01) (9, 1.09872348606586456299e-01) (10, 1.68221890926361083984e+00) (11, -5.94990253448486328125e-01) (12, 1.48526415228843688965e-01) (13, 9.38501134514808654785e-02) (14, 1.56648755073547363281e-01) (15, -2.88263440132141113281e-01) (16, 2.37707793712615966797e-01) (17, -6.91583752632141113281e-02) (18, 5.90488240122795104980e-02) (19, 1.15546023845672607422e+00) (20, -2.63020247220993041992e-02) (21, 3.50201785564422607422e-01) (22, 9.16460871696472167969e-01) (23, 1.67487889528274536133e-01) (24, 5.34034967422485351562e-02) (25, 1.00078387185931205750e-02) (5, -3.01714587211608886719e+00) (6, 7.10753440856933593750e+00) (7, 8.49970132112503051758e-02) (8, -7.27181434631347656250e-02) (9, 7.14748382568359375000e-01) (10, -5.36951720714569091797e-01) (11, 9.23090949654579162598e-02) (12, -1.00948102772235870361e-01) (13, -2.21889108419418334961e-01) (14, -2.67878830432891845703e-01) (15, 1.84016571044921875000e+01) (16, 6.91407144069671630859e-01) (17, -2.08834469318389892578e-01) (18, -1.40700593590736389160e-01) (19, 7.55028575658798217773e-02) (20, 4.37502622604370117188e-01) (21, 7.27011620998382568359e-01) (22, -7.33538940548896789551e-02) (23, -1.53991028666496276855e-01) (24, 6.81638419628143310547e-01) (25, -5.71441590785980224609e-01) (5, -2.36785203218460083008e-01) (6, 4.59956020116806030273e-01) (7, -5.03585860133171081543e-02) (8, 2.25217230618000030518e-02) (9, 4.76891189813613891602e-01) (10, 4.63274896144866943359e-01) (11, -1.25189766287803649902e-01) (12, -1.48676469922065734863e-01) (13, -7.90729746222496032715e-02) (14, 1.93013399839401245117e-02) (15, -1.39159291982650756836e-01) (16, 4.08096194267272949219e-01) (17, -9.80034470558166503906e-03) (18, -5.92181868851184844971e-02) (19, 5.83523631095886230469e-01) (20, 5.53178369998931884766e-01) (21, 4.61078315973281860352e-01) (22, 6.34976103901863098145e-02) (23, -1.19909523054957389832e-02) (24, 3.87764781713485717773e-01) (25, 1.51527553796768188477e-01) (5, 1.64529964327812194824e-01) (6, -2.27874979376792907715e-01) (7, 5.81533193588256835938e-01) (8, 3.70126962661743164062e-01) (9, -3.51614318788051605225e-02) (10, 2.65043694525957107544e-02) (11, 2.81168758869171142578e-01) (12, 5.40190756320953369141e-01) (13, 6.07124626636505126953e-01) (14, 4.80349421501159667969e-01) (15, 4.31663185358047485352e-01) (16, 1.73496866226196289062e+00) (17, 5.69204509258270263672e-01) (18, 4.68355655670166015625e-01) (19, -3.89304935932159423828e-01) (20, 4.20525223016738891602e-01) (21, 1.37240564823150634766e+00) (22, -9.75764468312263488770e-02) (23, 5.88745713233947753906e-01) (24, -1.24240174889564514160e-01) (25, 4.08785521984100341797e-01) (5, -1.02665746212005615234e+00) (6, -3.61068224906921386719e+00) (7, 3.55471342802047729492e-01) (8, -7.53339231014251708984e-02) (9, 2.12595220655202865601e-02) (10, -1.62909284234046936035e-01) (11, 7.10137546062469482422e-01) (12, 4.64616656303405761719e-01) (13, 6.26927733421325683594e-01) (14, 4.48829203844070434570e-01) (15, -3.10445874929428100586e-01) (16, -1.25280067324638366699e-01) (17, 4.18102264404296875000e-01) (18, 6.49747908115386962891e-01) (19, 9.35696065425872802734e-01) (20, 4.61461871862411499023e-01) (21, -4.21475946903228759766e-01) (22, 2.11962962150573730469e+00) (23, 4.74424391984939575195e-01) (24, -3.40328924357891082764e-02) (25, 5.45770645141601562500e-01) (26, 1.07474124431610107422e+00) (27, -3.02986264228820800781e-01) (28, 4.09821599721908569336e-01) (29, 6.27971529960632324219e-01) (30, -8.82777497172355651855e-02) (31, 5.54387211799621582031e-01) (32, 6.00114941596984863281e-01) (33, -3.33288550376892089844e-01) (34, -1.77474245429039001465e-01) (35, 2.05872148275375366211e-01) (36, 1.04074165225028991699e-01) (37, -6.62505477666854858398e-02) (38, 5.71323871612548828125e-01) (39, 4.44088011980056762695e-01) (40, 3.74136678874492645264e-02) (41, -2.93916225433349609375e-01) (42, 1.77887356281280517578e+00) (43, -1.24531649053096771240e-02) (44, -1.06346964836120605469e-01) (45, -9.76599659770727157593e-03) (46, 3.30456644296646118164e-01) (26, 5.86801171302795410156e-01) (27, 1.94068446755409240723e-01) (28, -2.40140661597251892090e-01) (29, 6.87140583992004394531e-01) (30, -1.59036651253700256348e-01) (31, 4.59217429161071777344e-01) (32, 5.84514677524566650391e-01) (33, -3.50223869085311889648e-01) (34, 6.20459377765655517578e-01) (35, 1.04173207283020019531e+00) (36, 1.05963997542858123779e-01) (37, -1.14922605454921722412e-01) (38, 4.37081545591354370117e-01) (39, -2.25882828235626220703e-01) (40, 1.14770030975341796875e+00) (41, 8.88709545135498046875e-01) (42, -1.00671565532684326172e+00) (43, -3.36135327816009521484e-02) (44, -8.26896876096725463867e-02) (45, 5.06469070911407470703e-01) (46, 8.67118388414382934570e-02) (26, -1.78383946418762207031e-01) (27, 3.94795179367065429688e-01) (28, 1.30228579044342041016e-01) (29, -6.21646717190742492676e-02) (30, 5.49982964992523193359e-01) (31, -1.39535173773765563965e-01) (32, -9.83270779252052307129e-02) (33, 1.13728314638137817383e-01) (34, 5.42622923851013183594e-01) (35, 5.70084512233734130859e-01) (36, 4.97165113687515258789e-01) (37, 4.95780497789382934570e-01) (38, -1.09095931053161621094e-01) (39, 5.31331717967987060547e-01) (40, 5.37617504596710205078e-01) (41, 8.96273791790008544922e-01) (42, -2.00480997562408447266e-01) (43, 5.62521219253540039062e-01) (44, 5.26111245155334472656e-01) (45, 5.35963296890258789062e-01) (46, 7.99638807773590087891e-01) 
