FANN_FLO_2.1
num_layers=4
learning_rate=0.700000
connection_rate=1.000000
network_type=0
learning_momentum=0.000000
training_algorithm=2
train_error_function=1
train_stop_function=0
cascade_output_change_fraction=0.010000
quickprop_decay=-0.000100
quickprop_mu=1.750000
rprop_increase_factor=1.200000
rprop_decrease_factor=0.500000
rprop_delta_min=0.000000
rprop_delta_max=50.000000
rprop_delta_zero=0.100000
cascade_output_stagnation_epochs=12
cascade_candidate_change_fraction=0.010000
cascade_candidate_stagnation_epochs=12
cascade_max_out_epochs=150
cascade_min_out_epochs=50
cascade_max_cand_epochs=150
cascade_min_cand_epochs=50
cascade_num_candidate_groups=2
bit_fail_limit=9.99999977648258209229e-03
cascade_candidate_limit=1.00000000000000000000e+03
cascade_weight_multiplier=4.00000005960464477539e-01
cascade_activation_functions_count=10
cascade_activation_functions=3 5 7 8 10 11 14 15 16 17 
cascade_activation_steepnesses_count=4
cascade_activation_steepnesses=2.50000000000000000000e-01 5.00000000000000000000e-01 7.50000000000000000000e-01 1.00000000000000000000e+00 
layer_sizes=5 11 11 4 
scale_included=0
neurons (num_inputs, activation_function, activation_steepness)=(0, 0, 0.00000000000000000000e+00) (0, 0, 0.00000000000000000000e+00) (0, 0, 0.00000000000000000000e+00) (0, 0, 0.00000000000000000000e+00) (0, 0, 0.00000000000000000000e+00) (5, 5, 5.00000000000000000000e-01) (5, 5, 5.00000000000000000000e-01) (5, 5, 5.00000000000000000000e-01) (5, 5, 5.00000000000000000000e-01) (5, 5, 5.00000000000000000000e-01) (5, 5, 5.00000000000000000000e-01) (5, 5, 5.00000000000000000000e-01) (5, 5, 5.00000000000000000000e-01) (5, 5, 5.00000000000000000000e-01) (5, 5, 5.00000000000000000000e-01) (0, 5, 0.00000000000000000000e+00) (11, 5, 5.00000000000000000000e-01) (11, 5, 5.00000000000000000000e-01) (11, 5, 5.00000000000000000000e-01) (11, 5, 5.00000000000000000000e-01) (11, 5, 5.00000000000000000000e-01) (11, 5, 5.00000000000000000000e-01) (11, 5, 5.00000000000000000000e-01) (11, 5, 5.00000000000000000000e-01) (11, 5, 5.00000000000000000000e-01) (11, 5, 5.00000000000000000000e-01) (0, 5, 0.00000000000000000000e+00) (11, 0, 5.00000000000000000000e-01) (11, 0, 5.00000000000000000000e-01) (11, 0, 5.00000000000000000000e-01) (0, 0, 0.00000000000000000000e+00) 
connections (connected_to_neuron, weight)=(0, -5.80577775835990905762e-02) (1, 5.19376277923583984375e-01) (2, 3.05255830287933349609e-01) (3, 5.75663030147552490234e-01) (4, 8.74003410339355468750e-01) (0, -3.65413218736648559570e-01) (1, 5.32341361045837402344e-01) (2, 4.81375157833099365234e-01) (3, 4.78539973497390747070e-01) (4, 7.70079135894775390625e-01) (0, 1.19846439361572265625e+00) (1, 1.76562011241912841797e-01) (2, -1.12668655812740325928e-01) (3, 1.50810107588768005371e-01) (4, -7.13218688964843750000e-01) (0, 9.36370730400085449219e-01) (1, -1.25944152474403381348e-01) (2, 8.85105729103088378906e-01) (3, -8.16942602396011352539e-02) (4, 8.45762491226196289062e-01) (0, -1.35562634468078613281e+00) (1, 5.79945743083953857422e-01) (2, 1.50555467605590820312e+00) (3, 3.44111680984497070312e-01) (4, 9.17413234710693359375e-01) (0, 4.99699354171752929688e-01) (1, -6.29854425787925720215e-02) (2, 3.01178276538848876953e-01) (3, 1.27816379070281982422e-01) (4, 1.33675441145896911621e-01) (0, 6.21416985988616943359e-01) (1, 9.09353017807006835938e-01) (2, 1.58556550741195678711e-01) (3, 5.68179070949554443359e-01) (4, 4.83566969633102416992e-01) (0, -4.33805733919143676758e-01) (1, 1.85917094349861145020e-01) (2, 2.19024524092674255371e-01) (3, -1.55556231737136840820e-01) (4, 3.26658666133880615234e-01) (0, 1.58706867694854736328e+00) (1, 5.28171181678771972656e-01) (2, -2.03218340873718261719e-01) (3, 6.54707014560699462891e-01) (4, -8.95173072814941406250e-01) (0, 3.38273376226425170898e-01) (1, -4.30033534765243530273e-01) (2, 4.95008409023284912109e-01) (3, -1.31318956613540649414e-01) (4, -8.08598518371582031250e-01) (5, -2.62876600027084350586e-01) (6, -2.95643031597137451172e-01) (7, 1.18391823768615722656e+00) (8, 7.98710703849792480469e-01) (9, -1.90934941172599792480e-01) (10, 1.01891052722930908203e+00) (11, 7.21042215824127197266e-01) (12, -4.84914928674697875977e-01) (13, 4.69604134559631347656e-01) (14, 8.39196264743804931641e-01) (15, -1.51653259992599487305e-01) (5, -3.61784666776657104492e-01) (6, -3.81556630134582519531e-01) (7, 8.63364756107330322266e-01) (8, -5.00906407833099365234e-01) (9, -2.67949390411376953125e+00) (10, -2.03731119632720947266e-01) (11, -9.98842239379882812500e-01) (12, 8.68686199188232421875e-01) (13, 2.68178228288888931274e-02) (14, 2.26901245117187500000e+00) (15, -1.54460027813911437988e-01) (5, -1.10561646521091461182e-01) (6, -1.64476782083511352539e-01) (7, 7.65921413898468017578e-01) (8, 9.26224410533905029297e-01) (9, 2.48221270740032196045e-02) (10, 8.57845544815063476562e-01) (11, 4.21494543552398681641e-01) (12, 4.90719258785247802734e-01) (13, -2.20231890678405761719e+00) (14, 2.83776253461837768555e-01) (15, 3.18597197532653808594e-01) (5, 3.19436454772949218750e+00) (6, -3.19656109809875488281e+00) (7, -6.88523817062377929688e+00) (8, -2.69020318984985351562e-01) (9, 4.82680511474609375000e+00) (10, -2.99336165189743041992e-01) (11, -1.69218647480010986328e+00) (12, -6.25557959079742431641e-01) (13, 5.92191457748413085938e-01) (14, 2.72715806961059570312e-01) (15, 8.27542766928672790527e-02) (5, 6.32940530776977539062e-01) (6, 3.76307368278503417969e-02) (7, -3.53296697139739990234e-01) (8, -5.18821775913238525391e-01) (9, 1.16496086120605468750e+00) (10, -1.25670716166496276855e-01) (11, 6.62111639976501464844e-02) (12, 5.42687773704528808594e-01) (13, 6.51932775974273681641e-01) (14, 4.12624716758728027344e-01) (15, 6.58213675022125244141e-01) (5, 1.10111087560653686523e-01) (6, 9.59632620215415954590e-02) (7, 5.54392218589782714844e-01) (8, 1.42095029354095458984e+00) (9, 4.96447980403900146484e-01) (10, 9.30070340633392333984e-01) (11, 8.20996999740600585938e-01) (12, 4.76678848266601562500e-01) (13, 2.23643891513347625732e-02) (14, 1.44740268588066101074e-01) (15, 6.10909402370452880859e-01) (5, 5.48855289816856384277e-02) (6, 3.93125787377357482910e-02) (7, -1.80026546120643615723e-01) (8, -1.15438044071197509766e+00) (9, 5.10939455032348632812e+00) (10, 8.78834247589111328125e-01) (11, -4.26415634155273437500e+00) (12, 2.66631878912448883057e-02) (13, 8.03123176097869873047e-01) (14, 2.24086713790893554688e+00) (15, 1.03270030021667480469e+00) (5, -4.48277406394481658936e-02) (6, -3.07097472250461578369e-02) (7, 7.81336247920989990234e-01) (8, 3.47460240125656127930e-01) (9, -2.60582149028778076172e-01) (10, 3.75616192817687988281e-01) (11, -1.34642672538757324219e+00) (12, 1.07259321212768554688e+00) (13, -1.15041904151439666748e-01) (14, 1.52475190162658691406e+00) (15, 9.67510044574737548828e-01) (5, 3.41516882181167602539e-01) (6, 8.99240732192993164062e-01) (7, 3.47731739282608032227e-01) (8, -4.56226676702499389648e-01) (9, 5.79570412635803222656e-01) (10, -2.55361080169677734375e-01) (11, -1.86607956886291503906e-01) (12, 9.89184200763702392578e-01) (13, 4.33494389057159423828e-01) (14, 4.28766727447509765625e-01) (15, 3.78117948770523071289e-01) (5, 2.40988805890083312988e-01) (6, 2.69129961729049682617e-01) (7, -1.02314963936805725098e-01) (8, 1.48922234773635864258e-01) (9, 1.71443626284599304199e-01) (10, 2.34657824039459228516e-01) (11, -1.34343540668487548828e+00) (12, 6.78018391132354736328e-01) (13, -6.53159797191619873047e-01) (14, 1.39246714115142822266e+00) (15, 1.68565499782562255859e+00) (16, 2.05497696995735168457e-01) (17, -9.46024507284164428711e-02) (18, -3.44365954399108886719e-01) (19, 4.96527671813964843750e-01) (20, 1.37250804901123046875e+00) (21, -5.20433843135833740234e-01) (22, 1.98456490039825439453e+00) (23, -2.51832574605941772461e-01) (24, 1.40414035320281982422e+00) (25, 1.51399761438369750977e-01) (26, 4.65290099382400512695e-01) (16, 1.45077538490295410156e+00) (17, 5.63575088977813720703e-01) (18, 1.07739245891571044922e+00) (19, -5.16369760036468505859e-01) (20, -2.78047382831573486328e-01) (21, 1.12170386314392089844e+00) (22, 5.26447534561157226562e-01) (23, 5.41792750358581542969e-01) (24, -3.40330690145492553711e-01) (25, 2.48090118169784545898e-01) (26, 1.65793180465698242188e-01) (16, -9.36381638050079345703e-01) (17, 1.27367281913757324219e+00) (18, 1.24755203723907470703e+00) (19, 4.67755138874053955078e-01) (20, 4.43863332271575927734e-01) (21, -1.20839118957519531250e+00) (22, -3.24350893497467041016e-01) (23, 8.64463806152343750000e-01) (24, 8.16686153411865234375e-01) (25, 1.52731573581695556641e+00) (26, 5.51692366600036621094e-01) 
