FANN_FLO_2.1
num_layers=4
learning_rate=0.700000
connection_rate=1.000000
network_type=0
learning_momentum=0.000000
training_algorithm=2
train_error_function=1
train_stop_function=0
cascade_output_change_fraction=0.010000
quickprop_decay=-0.000100
quickprop_mu=1.750000
rprop_increase_factor=1.200000
rprop_decrease_factor=0.500000
rprop_delta_min=0.000000
rprop_delta_max=50.000000
rprop_delta_zero=0.100000
cascade_output_stagnation_epochs=12
cascade_candidate_change_fraction=0.010000
cascade_candidate_stagnation_epochs=12
cascade_max_out_epochs=150
cascade_min_out_epochs=50
cascade_max_cand_epochs=150
cascade_min_cand_epochs=50
cascade_num_candidate_groups=2
bit_fail_limit=9.99999977648258209229e-03
cascade_candidate_limit=1.00000000000000000000e+03
cascade_weight_multiplier=4.00000005960464477539e-01
cascade_activation_functions_count=10
cascade_activation_functions=3 5 7 8 10 11 14 15 16 17 
cascade_activation_steepnesses_count=4
cascade_activation_steepnesses=2.50000000000000000000e-01 5.00000000000000000000e-01 7.50000000000000000000e-01 1.00000000000000000000e+00 
layer_sizes=5 21 21 4 
scale_included=0
neurons (num_inputs, activation_function, activation_steepness)=(0, 0, 0.00000000000000000000e+00) (0, 0, 0.00000000000000000000e+00) (0, 0, 0.00000000000000000000e+00) (0, 0, 0.00000000000000000000e+00) (0, 0, 0.00000000000000000000e+00) (5, 5, 5.00000000000000000000e-01) (5, 5, 5.00000000000000000000e-01) (5, 5, 5.00000000000000000000e-01) (5, 5, 5.00000000000000000000e-01) (5, 5, 5.00000000000000000000e-01) (5, 5, 5.00000000000000000000e-01) (5, 5, 5.00000000000000000000e-01) (5, 5, 5.00000000000000000000e-01) (5, 5, 5.00000000000000000000e-01) (5, 5, 5.00000000000000000000e-01) (5, 5, 5.00000000000000000000e-01) (5, 5, 5.00000000000000000000e-01) (5, 5, 5.00000000000000000000e-01) (5, 5, 5.00000000000000000000e-01) (5, 5, 5.00000000000000000000e-01) (5, 5, 5.00000000000000000000e-01) (5, 5, 5.00000000000000000000e-01) (5, 5, 5.00000000000000000000e-01) (5, 5, 5.00000000000000000000e-01) (5, 5, 5.00000000000000000000e-01) (0, 5, 0.00000000000000000000e+00) (21, 5, 5.00000000000000000000e-01) (21, 5, 5.00000000000000000000e-01) (21, 5, 5.00000000000000000000e-01) (21, 5, 5.00000000000000000000e-01) (21, 5, 5.00000000000000000000e-01) (21, 5, 5.00000000000000000000e-01) (21, 5, 5.00000000000000000000e-01) (21, 5, 5.00000000000000000000e-01) (21, 5, 5.00000000000000000000e-01) (21, 5, 5.00000000000000000000e-01) (21, 5, 5.00000000000000000000e-01) (21, 5, 5.00000000000000000000e-01) (21, 5, 5.00000000000000000000e-01) (21, 5, 5.00000000000000000000e-01) (21, 5, 5.00000000000000000000e-01) (21, 5, 5.00000000000000000000e-01) (21, 5, 5.00000000000000000000e-01) (21, 5, 5.00000000000000000000e-01) (21, 5, 5.00000000000000000000e-01) (21, 5, 5.00000000000000000000e-01) (0, 5, 0.00000000000000000000e+00) (21, 0, 5.00000000000000000000e-01) (21, 0, 5.00000000000000000000e-01) (21, 0, 5.00000000000000000000e-01) (0, 0, 0.00000000000000000000e+00) 
connections (connected_to_neuron, weight)=(0, 1.18054486811161041260e-01) (1, -5.48855215311050415039e-03) (2, 6.27752423286437988281e-01) (3, 1.07656463980674743652e-01) (4, 4.52558249235153198242e-01) (0, 3.34379345178604125977e-01) (1, 6.47232711315155029297e-01) (2, -7.41917416453361511230e-02) (3, 1.86140269041061401367e-01) (4, -2.53992706537246704102e-01) (0, -6.56012713909149169922e-01) (1, 1.22710309922695159912e-01) (2, 1.22627556324005126953e+00) (3, 3.13863009214401245117e-01) (4, 1.31154870986938476562e+00) (0, 3.12902718782424926758e-01) (1, 3.31703931093215942383e-01) (2, -4.90377217531204223633e-01) (3, 4.51767444610595703125e-01) (4, -3.92576992511749267578e-01) (0, -1.92789697647094726562e+00) (1, 3.10789525508880615234e-01) (2, 5.58362901210784912109e-02) (3, -3.42707857489585876465e-02) (4, 5.34817159175872802734e-01) (0, 3.24351698160171508789e-01) (1, 4.47004199028015136719e-01) (2, 6.03395462036132812500e-01) (3, 3.25272351503372192383e-01) (4, -1.08560696244239807129e-01) (0, 2.30773687362670898438e-01) (1, 5.25848232209682464600e-02) (2, -2.29364503175020217896e-02) (3, 7.69574120640754699707e-02) (4, 1.42410123348236083984e+00) (0, 5.01669794321060180664e-02) (1, -1.55382286757230758667e-02) (2, -7.33768105506896972656e-01) (3, 4.12559390068054199219e-01) (4, -4.69305574893951416016e-01) (0, -2.18570277094841003418e-01) (1, -8.80204439163208007812e-02) (2, 2.50882178544998168945e-01) (3, 2.92734801769256591797e-01) (4, 7.70727157592773437500e-01) (0, 9.51721787452697753906e-01) (1, 4.30168285965919494629e-02) (2, 7.19799816608428955078e-01) (3, -1.02590966224670410156e+00) (4, -1.96520775556564331055e-01) (0, -5.25112807750701904297e-01) (1, 1.27085614949464797974e-02) (2, 2.20634803175926208496e-01) (3, 1.38551205396652221680e-01) (4, 8.94404649734497070312e-01) (0, 6.33032143115997314453e-01) (1, 9.16098356246948242188e-01) (2, -4.79041546583175659180e-01) (3, 9.40647542476654052734e-01) (4, 4.07905161380767822266e-01) (0, -8.27435433864593505859e-01) (1, 2.96312212944030761719e-01) (2, 1.34799683094024658203e+00) (3, -1.27445176243782043457e-01) (4, 4.25897240638732910156e-01) (0, -2.03928083181381225586e-01) (1, 9.42329615354537963867e-02) (2, -7.00217723846435546875e-01) (3, 6.05209842324256896973e-02) (4, -3.73339742422103881836e-01) (0, -2.89157718420028686523e-01) (1, 1.62891205400228500366e-02) (2, 2.81141579151153564453e-01) (3, 5.30699640512466430664e-02) (4, 1.42499828338623046875e+00) (0, -1.70198202133178710938e-01) (1, 7.29907304048538208008e-02) (2, 5.98067119717597961426e-02) (3, 1.78027302026748657227e-01) (4, 4.82180207967758178711e-01) (0, -9.62624177336692810059e-02) (1, 8.08971703052520751953e-01) (2, 8.30758929252624511719e-01) (3, 5.39741754531860351562e-01) (4, 1.73872441053390502930e-01) (0, 1.88551509380340576172e+00) (1, 6.04833543300628662109e-01) (2, 1.05555725097656250000e+00) (3, 1.08137035369873046875e+00) (4, 4.68845874071121215820e-01) (0, 5.98657250404357910156e-01) (1, 3.20785433053970336914e-01) (2, 1.89264357089996337891e+00) (3, 2.03403651714324951172e-01) (4, 7.76849985122680664062e-01) (0, -5.43949961662292480469e-01) (1, 4.09151792526245117188e-01) (2, 4.43475060164928436279e-02) (3, 3.26877713203430175781e-01) (4, -3.05614667013287544250e-04) (5, 3.38017553091049194336e-01) (6, 3.27331870794296264648e-01) (7, 4.02022898197174072266e-01) (8, 4.59184348583221435547e-02) (9, 1.35611462593078613281e+00) (10, 2.59584128856658935547e-01) (11, 4.09312486648559570312e-01) (12, 3.39622706174850463867e-01) (13, -2.83839814364910125732e-02) (14, -2.46347095817327499390e-02) (15, 5.14459848403930664062e-01) (16, -2.28828978538513183594e+00) (17, 4.89071398973464965820e-01) (18, 8.85478675365447998047e-01) (19, 6.00695073604583740234e-01) (20, 3.22774022817611694336e-01) (21, -2.02586099505424499512e-01) (22, -9.51573729515075683594e-01) (23, 4.97666280716657638550e-03) (24, 8.28824758529663085938e-01) (25, 2.79407631605863571167e-02) (5, 5.90798258781433105469e-01) (6, -1.03162407875061035156e+00) (7, 5.12655794620513916016e-01) (8, -1.80048537254333496094e+00) (9, 1.59800410270690917969e-01) (10, -5.92089235782623291016e-01) (11, 8.84212553501129150391e-01) (12, -1.82062000036239624023e-01) (13, 5.80699443817138671875e-01) (14, -2.57967710494995117188e-01) (15, 4.12506282329559326172e-01) (16, -1.51861953735351562500e+00) (17, 2.28702977299690246582e-01) (18, 3.95441144704818725586e-01) (19, 1.26856935024261474609e+00) (20, 3.92792671918869018555e-01) (21, -3.14797490835189819336e-01) (22, -2.87284940481185913086e-01) (23, 3.27534466981887817383e-01) (24, -1.52986198663711547852e-01) (25, 1.43817687034606933594e+00) (5, 4.51038271188735961914e-01) (6, 1.19675984606146812439e-02) (7, 2.27021604776382446289e-01) (8, 4.69691395759582519531e-01) (9, 6.43543064594268798828e-01) (10, 2.02036723494529724121e-01) (11, 8.34186434745788574219e-01) (12, 6.17197215557098388672e-01) (13, 7.09546029567718505859e-01) (14, 4.96613621711730957031e-01) (15, 5.49772739410400390625e-01) (16, -2.70422220230102539062e-01) (17, 3.39666783809661865234e-01) (18, 7.29246377944946289062e-01) (19, 3.74807596206665039062e-01) (20, 6.65208697319030761719e-01) (21, -5.78305497765541076660e-02) (22, 1.63038462400436401367e-01) (23, -9.72015142440795898438e-01) (24, 7.61698365211486816406e-01) (25, -8.88010680675506591797e-01) (5, 4.52665150165557861328e-01) (6, 3.62377464771270751953e-01) (7, 9.78452742099761962891e-01) (8, 5.02869188785552978516e-01) (9, -4.61681395769119262695e-01) (10, 4.46546077728271484375e-01) (11, 3.85174542665481567383e-01) (12, 2.96052873134613037109e-01) (13, 3.43312382698059082031e-01) (14, 9.77817237377166748047e-01) (15, -2.60384470224380493164e-01) (16, 3.31650614738464355469e-01) (17, 6.72353744506835937500e-01) (18, 2.43886932730674743652e-01) (19, 6.14384412765502929688e-01) (20, 8.11750352382659912109e-01) (21, 1.42778778076171875000e+00) (22, 5.47385990619659423828e-01) (23, -1.36454552412033081055e-02) (24, 1.05686116218566894531e+00) (25, 1.30836856365203857422e+00) (5, 3.27842265367507934570e-01) (6, 5.23401856422424316406e-01) (7, -3.34900878369808197021e-02) (8, 3.35426449775695800781e-01) (9, -3.56808602809906005859e-02) (10, 6.76619291305541992188e-01) (11, 1.05918213725090026855e-01) (12, 4.75893199443817138672e-01) (13, -4.28560256958007812500e-01) (14, 1.31814062595367431641e+00) (15, -5.17719388008117675781e-01) (16, 4.41131964325904846191e-02) (17, 5.90020954608917236328e-01) (18, -2.36770555377006530762e-01) (19, 1.54509142041206359863e-01) (20, -3.52530568838119506836e-01) (21, 9.22877714037895202637e-02) (22, 2.58275061845779418945e-01) (23, 3.59391421079635620117e-01) (24, 8.20668816566467285156e-01) (25, -4.03424292802810668945e-01) (5, 5.25911390781402587891e-01) (6, 5.40111362934112548828e-01) (7, 3.77042829990386962891e-01) (8, 3.46871942281723022461e-01) (9, 4.26398545503616333008e-01) (10, 3.19257527589797973633e-01) (11, 5.68668007850646972656e-01) (12, 3.30448359251022338867e-01) (13, 4.00802910327911376953e-01) (14, 3.86815637350082397461e-01) (15, -8.60683083534240722656e-01) (16, 8.76545608043670654297e-01) (17, -2.87707537412643432617e-01) (18, 4.60193067789077758789e-01) (19, 6.73724338412284851074e-02) (20, 7.38166451454162597656e-01) (21, -5.51599204540252685547e-01) (22, 1.79967448115348815918e-01) (23, 1.44542500376701354980e-01) (24, 8.34296345710754394531e-01) (25, -3.37541967630386352539e-01) (5, 1.84685349464416503906e-01) (6, 1.12699277698993682861e-01) (7, 9.52856957912445068359e-01) (8, 1.83493778109550476074e-01) (9, 4.69630837440490722656e-01) (10, 4.58616688847541809082e-02) (11, 1.14028632640838623047e+00) (12, 2.91966885328292846680e-01) (13, 1.08899080753326416016e+00) (14, 8.00973773002624511719e-02) (15, 6.09984934329986572266e-01) (16, 4.33573350310325622559e-02) (17, 3.48510056734085083008e-01) (18, 4.63142901659011840820e-01) (19, 1.07445919513702392578e+00) (20, 5.96542894840240478516e-01) (21, 1.51885330677032470703e-01) (22, -1.87615260481834411621e-01) (23, 9.21657562255859375000e-01) (24, 6.11804276704788208008e-02) (25, 1.47842383384704589844e+00) (5, -1.04522727429866790771e-01) (6, 2.24189415574073791504e-01) (7, 2.35578581690788269043e-01) (8, 3.79487901926040649414e-01) (9, -9.92047786712646484375e-01) (10, -7.33472057618200778961e-04) (11, 2.74304389953613281250e-01) (12, 1.62986862659454345703e+00) (13, 3.37029308080673217773e-01) (14, -6.17118537425994873047e-01) (15, 2.29785755276679992676e-01) (16, 2.81296335160732269287e-02) (17, -7.49616026878356933594e-02) (18, 1.86547732353210449219e+00) (19, 1.63827523589134216309e-01) (20, 3.32542002201080322266e-01) (21, 3.61542165279388427734e-01) (22, 1.36870235204696655273e-01) (23, 8.80247727036476135254e-03) (24, 9.33333694934844970703e-01) (25, 4.35034394264221191406e-01) (5, 4.35647696256637573242e-01) (6, 1.56456470489501953125e-01) (7, 6.19656085968017578125e-01) (8, 2.33875587582588195801e-01) (9, 1.05764710903167724609e+00) (10, 2.66390949487686157227e-01) (11, 6.75963938236236572266e-01) (12, -3.52326512336730957031e-01) (13, 4.49139863252639770508e-01) (14, 6.51075899600982666016e-01) (15, 1.29017448425292968750e+00) (16, 1.92865476012229919434e-01) (17, -1.82797133922576904297e-01) (18, -1.88905805349349975586e-01) (19, 6.00827395915985107422e-01) (20, 3.74825090169906616211e-01) (21, -6.07331320643424987793e-02) (22, 2.81979829072952270508e-01) (23, 5.03178834915161132812e-01) (24, -5.93782700598239898682e-02) (25, 5.69118261337280273438e-01) (5, 1.92884609103202819824e-01) (6, 5.40659613907337188721e-02) (7, 2.16798782348632812500e+00) (8, 5.82591332495212554932e-02) (9, 9.48898792266845703125e-01) (10, 1.13263353705406188965e-02) (11, 1.49426198005676269531e+00) (12, 2.09530800580978393555e-01) (13, 1.10130214691162109375e+00) (14, 8.49726498126983642578e-01) (15, 1.47751939296722412109e+00) (16, 3.18814627826213836670e-02) (17, -1.17444753646850585938e+00) (18, 4.34482276439666748047e-01) (19, 1.06533944606781005859e+00) (20, 8.94274041056632995605e-02) (21, -8.07904183864593505859e-01) (22, 8.24179947376251220703e-02) (23, 7.91790783405303955078e-01) (24, 1.09317071735858917236e-01) (25, 6.78981304168701171875e-01) (5, 4.64273691177368164062e-01) (6, 2.44344174861907958984e-01) (7, 1.01269555091857910156e+00) (8, 2.96270728111267089844e-01) (9, 9.48603749275207519531e-01) (10, 2.24084872752428054810e-02) (11, 1.08396244049072265625e+00) (12, 1.98531821370124816895e-01) (13, 1.09032225608825683594e+00) (14, 8.67880582809448242188e-02) (15, 4.51630413532257080078e-01) (16, 1.02005325257778167725e-01) (17, 8.24487984180450439453e-01) (18, 4.27114814519882202148e-01) (19, 1.22447156906127929688e+00) (20, 5.14190554618835449219e-01) (21, 3.28912347555160522461e-01) (22, -7.95849561691284179688e-02) (23, 2.51410722732543945312e-01) (24, 2.74401400238275527954e-02) (25, 1.51164340972900390625e+00) (5, 2.71543323993682861328e-01) (6, -1.87608867883682250977e-01) (7, 7.31682896614074707031e-01) (8, -7.19598889350891113281e-01) (9, 3.62960076332092285156e+00) (10, -3.10410350561141967773e-01) (11, 5.35386443138122558594e-01) (12, 1.12378984689712524414e-01) (13, 7.98228740692138671875e-01) (14, -2.14182361960411071777e-01) (15, 5.80451369285583496094e-01) (16, -5.54461896419525146484e-01) (17, 2.68729496002197265625e+00) (18, 5.36458551883697509766e-01) (19, 1.20314109325408935547e+00) (20, 1.46367812156677246094e+00) (21, 9.33693826198577880859e-01) (22, -5.65361678600311279297e-01) (23, -7.93923884630203247070e-02) (24, 6.19217038154602050781e-01) (25, 1.48060250282287597656e+00) (5, 3.55352669954299926758e-01) (6, 2.48548150062561035156e-01) (7, 1.07474100589752197266e+00) (8, -2.16771289706230163574e-01) (9, 1.56941068172454833984e+00) (10, 1.16192542016506195068e-01) (11, 7.16231346130371093750e-01) (12, 3.40628683567047119141e-01) (13, 6.25196099281311035156e-01) (14, 3.19655947387218475342e-02) (15, 2.36559331417083740234e-01) (16, -1.67535018920898437500e+00) (17, 6.13198041915893554688e+00) (18, 5.38479387760162353516e-01) (19, 6.57509505748748779297e-01) (20, 1.99442896991968154907e-02) (21, -2.00293868780136108398e-01) (22, -7.56464898586273193359e-01) (23, 1.08474045991897583008e-01) (24, 4.82404589653015136719e-01) (25, 2.29658365249633789062e-01) (5, -1.54792666435241699219e-01) (6, 2.69397377967834472656e-01) (7, 5.74007630348205566406e-01) (8, -1.39599487185478210449e-01) (9, 4.71658408641815185547e-01) (10, 2.99449324607849121094e-01) (11, 4.36577409505844116211e-01) (12, -1.24916923046112060547e+00) (13, 2.75304079055786132812e-01) (14, 2.25570178031921386719e+00) (15, 3.64713758230209350586e-01) (16, -8.87323737144470214844e-01) (17, 4.72592210769653320312e+00) (18, 5.76790750026702880859e-01) (19, 1.09612214565277099609e+00) (20, -7.58298873901367187500e-01) (21, -3.95058065652847290039e-01) (22, 1.80109247565269470215e-01) (23, 6.77464783191680908203e-01) (24, -1.54209160804748535156e+00) (25, 1.13495731353759765625e+00) (5, 5.72489202022552490234e-01) (6, 5.54211497306823730469e-01) (7, 8.22555497288703918457e-02) (8, 1.27813860774040222168e-01) (9, 2.26948320865631103516e-01) (10, 5.35737395286560058594e-01) (11, -8.28514397144317626953e-01) (12, 2.64198016375303268433e-02) (13, -1.90899163484573364258e-01) (14, 1.32396554946899414062e+00) (15, 2.43756055831909179688e-01) (16, -1.29948168992996215820e-01) (17, 8.16335141658782958984e-01) (18, 4.65626746416091918945e-01) (19, 2.40693837404251098633e-01) (20, -1.53925180435180664062e-01) (21, 6.06697201728820800781e-01) (22, -1.66560247540473937988e-01) (23, 1.26752233505249023438e+00) (24, 6.02791607379913330078e-01) (25, -1.53595171868801116943e-02) (5, 3.40457819402217864990e-02) (6, -2.54901552200317382812e+00) (7, 5.97853004932403564453e-01) (8, -3.94839620590209960938e+00) (9, 8.59629631042480468750e-01) (10, -4.11071568727493286133e-01) (11, 2.91444361209869384766e-01) (12, -8.90709608793258666992e-02) (13, 1.13999426364898681641e+00) (14, 5.78877210617065429688e-01) (15, 3.01539450883865356445e-01) (16, -1.27946650981903076172e+00) (17, 8.94897162914276123047e-01) (18, 5.72578430175781250000e-01) (19, 3.20713460445404052734e-01) (20, 2.76287674903869628906e-01) (21, 2.20771104097366333008e-01) (22, -4.43205952644348144531e-01) (23, 1.50153741240501403809e-01) (24, 8.22749018669128417969e-01) (25, 1.12389087677001953125e+00) (5, 9.87967967987060546875e-01) (6, 2.04380005598068237305e-01) (7, 1.57636606693267822266e+00) (8, 4.23184037208557128906e-02) (9, 1.31597423553466796875e+00) (10, -2.26028021425008773804e-02) (11, 1.01116025447845458984e+00) (12, 1.01285889744758605957e-01) (13, 1.12466228008270263672e+00) (14, 1.08292078971862792969e+00) (15, 9.88874614238739013672e-01) (16, 2.37759381532669067383e-01) (17, -1.11852705478668212891e+00) (18, -7.85182043910026550293e-02) (19, 1.00792133808135986328e+00) (20, 2.48251575976610183716e-02) (21, -1.04010808467864990234e+00) (22, 8.67996513843536376953e-02) (23, 5.19686698913574218750e-01) (24, -1.71054199337959289551e-01) (25, 1.02867090702056884766e+00) (5, 3.97219598293304443359e-01) (6, 3.02092552185058593750e-01) (7, -6.58072352409362792969e-01) (8, 1.00147914886474609375e+01) (9, 3.64262253046035766602e-01) (10, 4.48498070240020751953e-01) (11, -4.71633851528167724609e-01) (12, 3.33507090806961059570e-01) (13, -2.72516340017318725586e-01) (14, 7.99844145774841308594e-01) (15, 3.11947673559188842773e-01) (16, 2.07700356841087341309e-01) (17, -1.08741974830627441406e+00) (18, 3.68161022663116455078e-01) (19, 2.62288749217987060547e-01) (20, -1.20126523077487945557e-01) (21, -3.35622358322143554688e+00) (22, 1.01744961738586425781e+00) (23, 6.51574969291687011719e-01) (24, -2.28410267829895019531e+00) (25, 6.74684047698974609375e-02) (5, 5.92223286628723144531e-01) (6, 1.14388215541839599609e+00) (7, -1.77322834730148315430e-01) (8, 7.53035008907318115234e-01) (9, 5.45835383236408233643e-02) (10, 6.27371072769165039062e-01) (11, -2.90811955928802490234e-02) (12, 5.44355034828186035156e-01) (13, -3.79474759101867675781e-01) (14, 1.75900685787200927734e+00) (15, 5.93422204256057739258e-02) (16, 4.58055973052978515625e-01) (17, 1.18560120463371276855e-01) (18, 3.74528288841247558594e-01) (19, 4.66193445026874542236e-02) (20, -1.47185131907463073730e-01) (21, -6.88776001334190368652e-02) (22, 4.59201306104660034180e-01) (23, 3.10025900602340698242e-01) (24, 1.56974583864212036133e-01) (25, -1.12428259849548339844e+00) (5, 1.16368733346462249756e-01) (6, 2.89204537868499755859e-01) (7, -2.70289182662963867188e-01) (8, 1.28041493892669677734e+00) (9, 1.55138000845909118652e-01) (10, 4.16306287050247192383e-01) (11, 2.96660959720611572266e-01) (12, 1.12990176677703857422e+00) (13, 4.29004907608032226562e-01) (14, 3.50243985652923583984e-01) (15, -1.43635272979736328125e+00) (16, 1.07014954090118408203e-01) (17, -2.39039540290832519531e+00) (18, 1.10158085823059082031e+00) (19, 3.16612273454666137695e-01) (20, 4.05304491519927978516e-01) (21, 7.89511948823928833008e-02) (22, 5.29338657855987548828e-01) (23, -1.25092387199401855469e+00) (24, 7.37018704414367675781e-01) (25, -3.69798809289932250977e-01) (26, 7.19809830188751220703e-01) (27, 6.57747805118560791016e-01) (28, 6.21087491512298583984e-01) (29, 5.16956806182861328125e-01) (30, 7.50660777091979980469e-01) (31, 4.35717076063156127930e-01) (32, 1.44481658935546875000e+00) (33, -8.97592902183532714844e-01) (34, 2.07630729675292968750e+00) (35, 4.74721908569335937500e-01) (36, 3.85204225778579711914e-01) (37, -4.47840869426727294922e-01) (38, 9.64986681938171386719e-01) (39, -1.02150060236454010010e-01) (40, 7.54586815834045410156e-01) (41, 1.82335332036018371582e-01) (42, 5.14785170555114746094e-01) (43, -7.81180262565612792969e-01) (44, 8.12724888324737548828e-01) (45, 3.98017257452011108398e-01) (46, 5.70394575595855712891e-01) (26, 9.05398949980735778809e-02) (27, 5.54347395896911621094e-01) (28, 6.41891181468963623047e-01) (29, 3.95365744829177856445e-01) (30, 4.10999417304992675781e-01) (31, 6.02068677544593811035e-02) (32, 1.43185222148895263672e+00) (33, 7.38894820213317871094e-01) (34, 1.10771059989929199219e+00) (35, 5.13468861579895019531e-01) (36, 8.12234461307525634766e-01) (37, 5.22587336599826812744e-02) (38, 3.60851854085922241211e-01) (39, 4.95253056287765502930e-01) (40, 2.89086163043975830078e-01) (41, -3.90150606632232666016e-01) (42, 5.05910336971282958984e-01) (43, 1.43810832500457763672e+00) (44, 6.23088121414184570312e-01) (45, 3.11915636062622070312e-01) (46, 7.11609184741973876953e-01) (26, 5.15878856182098388672e-01) (27, 1.21619224548339843750e+00) (28, 2.24012017250061035156e+00) (29, -4.57993634045124053955e-02) (30, 1.82068124413490295410e-01) (31, -4.53918844461441040039e-01) (32, 2.06526011228561401367e-01) (33, 5.84495067596435546875e-01) (34, -7.84484818577766418457e-02) (35, 1.77153035998344421387e-01) (36, 3.49544167518615722656e-01) (37, 6.35275304317474365234e-01) (38, 2.11634159088134765625e-01) (39, 3.09490077197551727295e-02) (40, 6.91658377647399902344e-01) (41, 5.94669461250305175781e-01) (42, 2.29384496808052062988e-01) (43, 5.52690029144287109375e-01) (44, -3.78662794828414916992e-01) (45, 1.02625393867492675781e+00) (46, 1.16228210926055908203e+00) 
