FANN_FLO_2.1
num_layers=4
learning_rate=0.700000
connection_rate=1.000000
network_type=0
learning_momentum=0.000000
training_algorithm=2
train_error_function=1
train_stop_function=0
cascade_output_change_fraction=0.010000
quickprop_decay=-0.000100
quickprop_mu=1.750000
rprop_increase_factor=1.200000
rprop_decrease_factor=0.500000
rprop_delta_min=0.000000
rprop_delta_max=50.000000
rprop_delta_zero=0.100000
cascade_output_stagnation_epochs=12
cascade_candidate_change_fraction=0.010000
cascade_candidate_stagnation_epochs=12
cascade_max_out_epochs=150
cascade_min_out_epochs=50
cascade_max_cand_epochs=150
cascade_min_cand_epochs=50
cascade_num_candidate_groups=2
bit_fail_limit=9.99999977648258209229e-03
cascade_candidate_limit=1.00000000000000000000e+03
cascade_weight_multiplier=4.00000005960464477539e-01
cascade_activation_functions_count=10
cascade_activation_functions=3 5 7 8 10 11 14 15 16 17 
cascade_activation_steepnesses_count=4
cascade_activation_steepnesses=2.50000000000000000000e-01 5.00000000000000000000e-01 7.50000000000000000000e-01 1.00000000000000000000e+00 
layer_sizes=5 21 21 4 
scale_included=0
neurons (num_inputs, activation_function, activation_steepness)=(0, 0, 0.00000000000000000000e+00) (0, 0, 0.00000000000000000000e+00) (0, 0, 0.00000000000000000000e+00) (0, 0, 0.00000000000000000000e+00) (0, 0, 0.00000000000000000000e+00) (5, 5, 5.00000000000000000000e-01) (5, 5, 5.00000000000000000000e-01) (5, 5, 5.00000000000000000000e-01) (5, 5, 5.00000000000000000000e-01) (5, 5, 5.00000000000000000000e-01) (5, 5, 5.00000000000000000000e-01) (5, 5, 5.00000000000000000000e-01) (5, 5, 5.00000000000000000000e-01) (5, 5, 5.00000000000000000000e-01) (5, 5, 5.00000000000000000000e-01) (5, 5, 5.00000000000000000000e-01) (5, 5, 5.00000000000000000000e-01) (5, 5, 5.00000000000000000000e-01) (5, 5, 5.00000000000000000000e-01) (5, 5, 5.00000000000000000000e-01) (5, 5, 5.00000000000000000000e-01) (5, 5, 5.00000000000000000000e-01) (5, 5, 5.00000000000000000000e-01) (5, 5, 5.00000000000000000000e-01) (5, 5, 5.00000000000000000000e-01) (0, 5, 0.00000000000000000000e+00) (21, 5, 5.00000000000000000000e-01) (21, 5, 5.00000000000000000000e-01) (21, 5, 5.00000000000000000000e-01) (21, 5, 5.00000000000000000000e-01) (21, 5, 5.00000000000000000000e-01) (21, 5, 5.00000000000000000000e-01) (21, 5, 5.00000000000000000000e-01) (21, 5, 5.00000000000000000000e-01) (21, 5, 5.00000000000000000000e-01) (21, 5, 5.00000000000000000000e-01) (21, 5, 5.00000000000000000000e-01) (21, 5, 5.00000000000000000000e-01) (21, 5, 5.00000000000000000000e-01) (21, 5, 5.00000000000000000000e-01) (21, 5, 5.00000000000000000000e-01) (21, 5, 5.00000000000000000000e-01) (21, 5, 5.00000000000000000000e-01) (21, 5, 5.00000000000000000000e-01) (21, 5, 5.00000000000000000000e-01) (21, 5, 5.00000000000000000000e-01) (0, 5, 0.00000000000000000000e+00) (21, 0, 5.00000000000000000000e-01) (21, 0, 5.00000000000000000000e-01) (21, 0, 5.00000000000000000000e-01) (0, 0, 0.00000000000000000000e+00) 
connections (connected_to_neuron, weight)=(0, 7.94098749756813049316e-02) (1, -1.83639764785766601562e-01) (2, -4.85048472881317138672e-01) (3, -2.35779643058776855469e-01) (4, 5.58602988719940185547e-01) (0, 2.89318561553955078125e-01) (1, 1.29950508475303649902e-01) (2, 1.02722764015197753906e+00) (3, 1.04115620255470275879e-01) (4, 2.09079626947641372681e-02) (0, 7.12060257792472839355e-02) (1, 6.40241503715515136719e-01) (2, 1.46522212028503417969e+00) (3, 2.42616340517997741699e-01) (4, 1.66214868426322937012e-01) (0, 4.60570663213729858398e-01) (1, -2.16443851590156555176e-01) (2, 4.05544072389602661133e-01) (3, -1.61254271864891052246e-01) (4, -7.81535580754280090332e-02) (0, 1.76767635345458984375e+00) (1, 5.17491757869720458984e-01) (2, 1.79215204715728759766e+00) (3, 1.40227481722831726074e-01) (4, 3.34661388397216796875e+00) (0, 3.89605015516281127930e-01) (1, 2.47905626893043518066e-01) (2, -3.75247091054916381836e-01) (3, 1.78288117051124572754e-01) (4, 4.40982878208160400391e-01) (0, 6.76008462905883789062e-01) (1, -1.45441278815269470215e-01) (2, 4.20716911554336547852e-01) (3, -2.62081980705261230469e-01) (4, -1.13781981170177459717e-01) (0, 3.96293401718139648438e-01) (1, -3.01198884844779968262e-02) (2, 4.05714154243469238281e-01) (3, 6.73895925283432006836e-02) (4, 1.76826063543558120728e-02) (0, 5.75205266475677490234e-01) (1, -1.35662898421287536621e-01) (2, 3.63924145698547363281e-01) (3, -1.92625492811203002930e-01) (4, 1.07533842325210571289e-01) (0, 9.33419540524482727051e-03) (1, 2.87673473358154296875e-01) (2, -1.09082913398742675781e+00) (3, 6.20615333318710327148e-02) (4, 4.13628488779067993164e-01) (0, 2.10576709359884262085e-02) (1, 1.88137412071228027344e-01) (2, -1.00632384419441223145e-01) (3, 1.75762414932250976562e-01) (4, -4.17375296354293823242e-01) (0, 1.69074308872222900391e+00) (1, 3.93215060234069824219e-01) (2, -8.53446722030639648438e-01) (3, 5.73867917060852050781e-01) (4, 4.10684764385223388672e-01) (0, 5.02980351448059082031e-02) (1, 2.43390858173370361328e-01) (2, -1.44225329160690307617e-01) (3, 2.10590869188308715820e-01) (4, 1.13568294048309326172e+00) (0, -1.21126428246498107910e-01) (1, 3.14387232065200805664e-01) (2, 3.17612439393997192383e-02) (3, 1.52492627501487731934e-01) (4, 1.20239174365997314453e+00) (0, 2.16166540980339050293e-01) (1, 6.57891094684600830078e-01) (2, -1.83945707976818084717e-02) (3, 6.86851382255554199219e-01) (4, 2.45399579405784606934e-01) (0, 8.98348271846771240234e-01) (1, 1.36179700493812561035e-01) (2, 4.81414228677749633789e-01) (3, 5.29413707554340362549e-02) (4, 3.58755826950073242188e-01) (0, 4.90556716918945312500e-01) (1, -2.73157447576522827148e-01) (2, -8.11291158199310302734e-01) (3, -4.14093025028705596924e-02) (4, 2.77457386255264282227e-01) (0, -2.17250928282737731934e-01) (1, 6.96633458137512207031e-01) (2, -3.00002992153167724609e-01) (3, 6.07381105422973632812e-01) (4, 8.26582387089729309082e-02) (0, 3.23244810104370117188e-01) (1, 5.27387738227844238281e-01) (2, 7.17697024345397949219e-01) (3, 3.93133163452148437500e-01) (4, 3.50994646549224853516e-01) (0, 3.99613589048385620117e-01) (1, 7.87619471549987792969e-01) (2, -4.30782854557037353516e-01) (3, 5.55761635303497314453e-01) (4, 2.80899226665496826172e-01) (5, -6.43388092517852783203e-01) (6, 1.15517757833003997803e-01) (7, 1.57837283611297607422e+00) (8, 1.71542484313249588013e-02) (9, 5.64967215061187744141e-01) (10, -6.80589485168457031250e+00) (11, 2.76230484247207641602e-01) (12, -1.28313839435577392578e-01) (13, 5.54838441312313079834e-02) (14, 6.03362441062927246094e-01) (15, 6.01608641445636749268e-02) (16, -4.68182945251464843750e+00) (17, 9.61512744426727294922e-01) (18, 9.95176494121551513672e-01) (19, 7.39988267421722412109e-01) (20, 2.56978780031204223633e-01) (21, -1.65441811084747314453e+00) (22, 4.91134464740753173828e-01) (23, 9.38515663146972656250e-01) (24, 3.73925417661666870117e-01) (25, 1.94435790181159973145e-01) (5, 4.57342714071273803711e-02) (6, 3.81276637315750122070e-01) (7, 2.27677553892135620117e-01) (8, 8.38481664657592773438e-01) (9, 1.35770991444587707520e-01) (10, 1.16291135549545288086e-01) (11, 7.72615313529968261719e-01) (12, 3.53090345859527587891e-01) (13, 7.63267636299133300781e-01) (14, 1.38216584920883178711e-01) (15, 4.18884187936782836914e-01) (16, -1.32954820990562438965e-01) (17, 1.92932575941085815430e-01) (18, 2.37700313329696655273e-01) (19, -7.60481432080268859863e-02) (20, -2.39480342715978622437e-02) (21, 5.45989751815795898438e-01) (22, -1.55138060450553894043e-01) (23, -2.18448877334594726562e-01) (24, -2.48444661498069763184e-01) (25, -5.18156647682189941406e-01) (5, 1.01823471486568450928e-01) (6, 2.64355480670928955078e-01) (7, 1.41767144203186035156e-01) (8, 5.95568597316741943359e-01) (9, -7.00706899166107177734e-01) (10, 6.39939680695533752441e-03) (11, 5.03173589706420898438e-01) (12, 1.02848201990127563477e-01) (13, -5.62532842159271240234e-02) (14, 1.65422856807708740234e-01) (15, 4.37644183635711669922e-01) (16, 3.18194657564163208008e-01) (17, 1.95703104138374328613e-01) (18, -2.06290692090988159180e-01) (19, 4.99870300292968750000e-01) (20, 7.62741923332214355469e-01) (21, 2.41856113076210021973e-01) (22, 6.66436254978179931641e-01) (23, 3.95900756120681762695e-01) (24, 6.32656633853912353516e-01) (25, 5.48974096775054931641e-01) (5, 8.00556659698486328125e-01) (6, 2.66395866870880126953e-01) (7, -2.10411235690116882324e-01) (8, 6.89234673976898193359e-01) (9, 1.53362587094306945801e-01) (10, 3.27014833688735961914e-01) (11, 5.87576448917388916016e-01) (12, 3.32069873809814453125e-01) (13, 7.04243004322052001953e-01) (14, 2.37210854887962341309e-01) (15, 4.12386536598205566406e-01) (16, 1.37846753001213073730e-01) (17, 1.83597564697265625000e-01) (18, 3.01336467266082763672e-01) (19, -7.37415328621864318848e-02) (20, -8.56261402368545532227e-02) (21, 8.07113885879516601562e-01) (22, -1.77943840622901916504e-01) (23, -2.34642192721366882324e-01) (24, -1.58624991774559020996e-01) (25, 4.53086420893669128418e-02) (5, -2.50217497348785400391e-01) (6, 1.09190873801708221436e-01) (7, 1.04656803607940673828e+00) (8, 3.11607643961906433105e-02) (9, 9.29315164685249328613e-02) (10, -4.84105443954467773438e+00) (11, -1.53820082545280456543e-01) (12, -9.61822867393493652344e-01) (13, -2.70931720733642578125e-01) (14, 3.95092368125915527344e-01) (15, -2.39256724715232849121e-01) (16, -1.39673948287963867188e+00) (17, 2.50201612710952758789e-01) (18, 8.20195257663726806641e-01) (19, -1.10728286206722259521e-01) (20, 7.68894195556640625000e-01) (21, -4.41420823335647583008e-01) (22, 1.66676342487335205078e-01) (23, 2.18445226550102233887e-01) (24, -2.49059215188026428223e-01) (25, 1.48200094699859619141e+00) (5, 6.71130120754241943359e-01) (6, 3.75310927629470825195e-02) (7, 4.97048884630203247070e-01) (8, 5.50136089324951171875e-01) (9, -4.26972895860671997070e-01) (10, 2.39118561148643493652e-01) (11, 5.11833578348159790039e-02) (12, 3.73980879783630371094e-01) (13, -6.06542974710464477539e-02) (14, 2.74924963712692260742e-01) (15, 1.48484408855438232422e+00) (16, -7.87036836147308349609e-01) (17, 2.67507791519165039062e-01) (18, -1.78064346313476562500e-01) (19, 3.43503385782241821289e-01) (20, -2.49383553862571716309e-01) (21, 5.94894886016845703125e-01) (22, 3.36545497179031372070e-01) (23, -7.60344862937927246094e-02) (24, -1.56363427639007568359e-01) (25, -1.98509931564331054688e+00) (5, 5.07270395755767822266e-01) (6, 4.16094362735748291016e-01) (7, -1.83247953653335571289e-01) (8, 5.23461028933525085449e-03) (9, 1.67585954070091247559e-01) (10, 6.86211061477661132812e+00) (11, 1.26033648848533630371e-01) (12, 1.33741497993469238281e-02) (13, 1.54465079307556152344e-01) (14, 5.19793653488159179688e+00) (15, 2.51286268234252929688e-01) (16, 5.28147315979003906250e+00) (17, -1.51226773858070373535e-01) (18, 2.51282542943954467773e-01) (19, -2.72934585809707641602e-01) (20, 1.20085334777832031250e+00) (21, 1.66833353042602539062e+00) (22, 7.66433477401733398438e-01) (23, -2.91201382875442504883e-01) (24, 5.82713842391967773438e-01) (25, 1.10421025753021240234e+00) (5, 1.63479913026094436646e-02) (6, 7.51321434974670410156e-01) (7, 6.32310450077056884766e-01) (8, 2.44561553001403808594e-01) (9, -1.61781632900238037109e+00) (10, 1.08587920665740966797e-01) (11, 2.29440793395042419434e-01) (12, -8.27361196279525756836e-02) (13, 1.93131372332572937012e-01) (14, 6.38540506362915039062e-01) (15, -5.92519104480743408203e-01) (16, 1.24399065971374511719e-02) (17, 4.74729359149932861328e-01) (18, 7.33199536800384521484e-01) (19, 1.03778943419456481934e-01) (20, 1.11556959152221679688e+00) (21, -1.37799382209777832031e-01) (22, 2.58645296096801757812e-01) (23, 7.18757808208465576172e-02) (24, 1.78160354495048522949e-01) (25, 3.50307285785675048828e-01) (5, 1.31069767475128173828e+00) (6, 3.56420911848545074463e-02) (7, -7.71937906742095947266e-01) (8, 4.23009157180786132812e-01) (9, 1.07081599533557891846e-01) (10, 1.43007385730743408203e+00) (11, -1.19859643280506134033e-01) (12, 1.23544305562973022461e-01) (13, 1.91683337092399597168e-01) (14, 4.85308647155761718750e+00) (15, -9.27356123924255371094e-01) (16, 9.00574147701263427734e-01) (17, 6.43164753913879394531e-01) (18, 5.69025695323944091797e-01) (19, 2.65542149543762207031e-01) (20, 4.08919960260391235352e-01) (21, 1.99154114723205566406e+00) (22, 1.25442326068878173828e+00) (23, -1.50916302204132080078e+00) (24, 3.01355153322219848633e-01) (25, 5.40032982826232910156e-01) (5, 1.34468197822570800781e-01) (6, 3.55509966611862182617e-01) (7, -5.77988505363464355469e-01) (8, 6.69730454683303833008e-02) (9, 3.68014663457870483398e-01) (10, 3.74478650093078613281e+00) (11, 9.30222809314727783203e-01) (12, -6.04231059551239013672e-01) (13, 3.75760078430175781250e-01) (14, 1.06410598754882812500e+00) (15, 4.28658008575439453125e-01) (16, 1.64955675601959228516e+00) (17, 9.66246128082275390625e-01) (18, 1.17678225040435791016e+00) (19, 1.97399035096168518066e-01) (20, -2.37158969044685363770e-01) (21, 6.42734766006469726562e-01) (22, 2.10181865841150283813e-02) (23, -1.47434103488922119141e+00) (24, 2.34641015529632568359e-01) (25, 6.12126648426055908203e-01) (5, 1.23619131743907928467e-01) (6, 8.70892345905303955078e-01) (7, 5.56462526321411132812e-01) (8, -4.44359958171844482422e-01) (9, -1.46144998073577880859e+00) (10, -7.50998333096504211426e-02) (11, -1.89741924405097961426e-01) (12, -1.04051358997821807861e-01) (13, -3.39614421129226684570e-01) (14, -1.73307225108146667480e-01) (15, 3.57650548219680786133e-01) (16, -4.78611141443252563477e-01) (17, -1.72586476802825927734e+00) (18, 2.50834822654724121094e-01) (19, 5.38682229816913604736e-02) (20, 4.55118119716644287109e-01) (21, -7.65049695968627929688e-01) (22, 1.05080366134643554688e+00) (23, 6.39192581176757812500e-01) (24, 6.12756073474884033203e-01) (25, 1.17821693420410156250e+00) (5, 5.34347593784332275391e-01) (6, 1.94332048296928405762e-01) (7, 1.46556869149208068848e-01) (8, -1.03843368589878082275e-01) (9, -1.01520609855651855469e+00) (10, 2.00950458645820617676e-01) (11, -8.54988321661949157715e-02) (12, 4.45128887891769409180e-01) (13, 3.17860804498195648193e-02) (14, 2.52136468887329101562e-01) (15, 3.29817175865173339844e-01) (16, 5.32456114888191223145e-02) (17, 3.50204676389694213867e-01) (18, -5.47234062105417251587e-03) (19, 8.18974554538726806641e-01) (20, -1.43360286951065063477e-01) (21, 2.37818658351898193359e-01) (22, 5.37844479084014892578e-01) (23, 4.41767811775207519531e-01) (24, 5.57405650615692138672e-01) (25, 4.82147306203842163086e-01) (5, 4.21318680047988891602e-01) (6, 6.63947463035583496094e-01) (7, 5.82899212837219238281e-01) (8, -6.11374713480472564697e-02) (9, 5.14143288135528564453e-01) (10, -1.78977614268660545349e-03) (11, 2.91515916585922241211e-01) (12, 2.71590501070022583008e-01) (13, -3.51603254675865173340e-02) (14, 4.78186994791030883789e-01) (15, 1.83848261833190917969e-01) (16, -8.95743444561958312988e-03) (17, 2.98280343413352966309e-02) (18, 2.05411463975906372070e-02) (19, -4.84260097146034240723e-02) (20, 1.44764697551727294922e+00) (21, 1.57859604805707931519e-02) (22, 8.78890454769134521484e-02) (23, 3.16067695617675781250e-01) (24, 5.23672401905059814453e-01) (25, 7.43912875652313232422e-01) (5, 2.96897381544113159180e-01) (6, 5.59311628341674804688e-01) (7, 3.93904238939285278320e-01) (8, 1.70863401144742965698e-02) (9, -7.36993074417114257812e-01) (10, -6.62828445434570312500e-01) (11, -3.48888784646987915039e-01) (12, 4.59414392709732055664e-01) (13, -2.26991646923124790192e-03) (14, -2.04734161496162414551e-01) (15, 7.58041095733642578125e+00) (16, -1.86669021844863891602e-01) (17, 6.96901306509971618652e-02) (18, -1.10152460634708404541e-01) (19, 5.71073234081268310547e-01) (20, -3.10983747243881225586e-01) (21, -9.70891475677490234375e+00) (22, 2.64973372220993041992e-01) (23, 3.45152258872985839844e-01) (24, 3.48027721047401428223e-02) (25, 5.06546795368194580078e-01) (5, 6.96914076805114746094e-01) (6, 4.00499552488327026367e-01) (7, 2.88121163845062255859e-01) (8, 6.76364243030548095703e-01) (9, 3.66879105567932128906e-02) (10, 2.63004034757614135742e-01) (11, 7.76502728462219238281e-01) (12, 9.10962820053100585938e-02) (13, 6.14814460277557373047e-01) (14, 2.64584720134735107422e-01) (15, 3.64813089370727539062e-01) (16, -2.29821905493736267090e-01) (17, 2.75372534990310668945e-01) (18, 1.92829906940460205078e-01) (19, -2.16940417885780334473e-01) (20, -1.85850821435451507568e-02) (21, 2.66352474689483642578e-01) (22, -1.28540053963661193848e-01) (23, -3.07045727968215942383e-01) (24, -2.45249018073081970215e-01) (25, -2.86596029996871948242e-01) (5, 1.16337227821350097656e+00) (6, 3.01563084125518798828e-01) (7, 1.59795619547367095947e-02) (8, 7.28392302989959716797e-01) (9, 3.07986319065093994141e-01) (10, 2.88018733263015747070e-01) (11, 5.82091271877288818359e-01) (12, 4.12985354661941528320e-01) (13, 8.07917833328247070312e-01) (14, 4.16980922222137451172e-01) (15, 1.01556643843650817871e-01) (16, 2.01558038592338562012e-01) (17, 4.62000310420989990234e-01) (18, 3.60139697790145874023e-01) (19, -4.13887202739715576172e-02) (20, 6.36040419340133666992e-02) (21, 6.96817445755004882812e+00) (22, -8.61568152904510498047e-02) (23, 2.05544102936983108521e-02) (24, -6.59500733017921447754e-02) (25, 1.15168556571006774902e-01) (5, 9.45177197456359863281e-01) (6, 6.71123325824737548828e-01) (7, 2.81660735607147216797e-01) (8, 1.47716835141181945801e-01) (9, 3.46021115779876708984e-01) (10, 2.51432895660400390625e+00) (11, 6.96603000164031982422e-01) (12, 3.00398431718349456787e-02) (13, 7.63145685195922851562e-01) (14, 3.22218000888824462891e-01) (15, -2.59297788143157958984e-01) (16, 1.73001182079315185547e+00) (17, 5.14731965959072113037e-02) (18, 5.78094482421875000000e-01) (19, -1.28042483329772949219e+00) (20, 1.71877717971801757812e+00) (21, 3.03770452737808227539e-01) (22, -4.31014627218246459961e-01) (23, -1.27158820629119873047e-01) (24, 5.43009459972381591797e-01) (25, 8.77641677856445312500e-01) (5, 6.76296234130859375000e-01) (6, 1.90350100398063659668e-01) (7, 1.68636247515678405762e-01) (8, 5.77979147434234619141e-01) (9, 2.23518714308738708496e-01) (10, 4.08623009920120239258e-01) (11, 4.14394646883010864258e-01) (12, 6.11408520489931106567e-03) (13, 4.58403289318084716797e-01) (14, 4.20458376407623291016e-01) (15, 4.87043589353561401367e-01) (16, 2.66632735729217529297e-01) (17, 3.74790370464324951172e-01) (18, 3.84526580572128295898e-01) (19, 7.17076599597930908203e-01) (20, 4.72729504108428955078e-01) (21, 1.45641088485717773438e+00) (22, -2.25392300635576248169e-02) (23, 3.93438398838043212891e-01) (24, 6.92516639828681945801e-02) (25, -2.59123086929321289062e-01) (5, 4.79240000247955322266e-01) (6, -5.23333139717578887939e-02) (7, 1.46996006369590759277e-01) (8, -1.11028671264648437500e-01) (9, 4.18946593999862670898e-01) (10, 2.39249736070632934570e-01) (11, -5.48197282478213310242e-03) (12, 3.02072644233703613281e-01) (13, -7.72868916392326354980e-02) (14, 9.40511465072631835938e-01) (15, 1.91339537501335144043e-01) (16, 2.31021996587514877319e-02) (17, 5.89982271194458007812e-01) (18, 1.43720701336860656738e-01) (19, 1.08394786715507507324e-01) (20, 3.29391270875930786133e-01) (21, 1.17171120643615722656e+00) (22, 6.74068868160247802734e-01) (23, -6.29914179444313049316e-02) (24, 6.35927498340606689453e-01) (25, 6.77751481533050537109e-01) (5, 5.00253200531005859375e-01) (6, -1.04418838024139404297e+00) (7, 9.82732176780700683594e-02) (8, 7.09043210372328758240e-03) (9, 2.28805452585220336914e-01) (10, 2.56657510995864868164e-01) (11, -1.31171032786369323730e-01) (12, -1.30907386541366577148e-01) (13, 5.00778928399085998535e-02) (14, 2.54449248313903808594e+00) (15, 1.04882262647151947021e-01) (16, 7.88705885410308837891e-01) (17, 7.11238622665405273438e-01) (18, 1.61774575710296630859e-01) (19, 7.07704424858093261719e-01) (20, 9.66965079307556152344e-01) (21, 7.79441416263580322266e-01) (22, 7.25196540355682373047e-01) (23, 4.99364405870437622070e-01) (24, 7.96076118946075439453e-01) (25, 5.73948502540588378906e-01) (26, 2.61728972196578979492e-01) (27, -2.23839759826660156250e-01) (28, 4.36704933643341064453e-01) (29, -2.44396194815635681152e-01) (30, 4.79611456394195556641e-01) (31, 8.22159349918365478516e-02) (32, 4.42924350500106811523e-01) (33, 3.39841097593307495117e-01) (34, -2.83197879791259765625e-01) (35, 2.04584449529647827148e-01) (36, 6.17190062999725341797e-01) (37, 2.22203314304351806641e-01) (38, 4.85693335533142089844e-01) (39, 3.75357478857040405273e-01) (40, -1.78108692169189453125e-01) (41, -2.69226640462875366211e-01) (42, 5.91710567474365234375e-01) (43, 2.05089628696441650391e-01) (44, 7.07762300968170166016e-01) (45, 5.69924473762512207031e-01) (46, 1.53852713108062744141e+00) (26, -7.42176890373229980469e-01) (27, 8.19912195205688476562e-01) (28, 2.16675668954849243164e-01) (29, 7.57865965366363525391e-01) (30, -4.01227444410324096680e-01) (31, 3.11446219682693481445e-01) (32, -2.46216937899589538574e-01) (33, 1.78572788834571838379e-01) (34, -6.32335007190704345703e-01) (35, 9.67662930488586425781e-02) (36, 2.48614132404327392578e-01) (37, 4.13322299718856811523e-01) (38, -1.48916438221931457520e-01) (39, 3.70340198278427124023e-01) (40, 7.61252224445343017578e-01) (41, 6.43453359603881835938e-01) (42, 1.05892482679337263107e-03) (43, 6.66429340839385986328e-01) (44, -5.35170435905456542969e-02) (45, -1.92033037543296813965e-01) (46, -3.32823932170867919922e-01) (26, 1.35627305507659912109e+00) (27, 7.21891164779663085938e-01) (28, 4.67148758471012115479e-02) (29, 6.71971738338470458984e-01) (30, 8.52267146110534667969e-01) (31, 4.29058343172073364258e-01) (32, 1.36931046843528747559e-01) (33, 8.71680676937103271484e-02) (34, -6.76229894161224365234e-02) (35, -8.69627743959426879883e-02) (36, 2.16839537024497985840e-01) (37, 9.17062982916831970215e-02) (38, 2.78888553380966186523e-01) (39, 6.06880895793437957764e-02) (40, 6.75969302654266357422e-01) (41, 7.92167067527770996094e-01) (42, 7.15637683868408203125e-01) (43, 7.09951579570770263672e-01) (44, -4.82128053903579711914e-01) (45, -1.69370204210281372070e-01) (46, 2.47620970010757446289e-01) 
